6.778359247158512700e-03,1.312066273318183117e-02,-3.290426629571412825e-02,8.400753429126280036e-04,2.076638845717261941e-02,5.732557919528490781e-02,-2.437642216407123839e-03,-4.404467802764899104e-02,3.543948542114112865e-02,-1.249148549125308864e-02,1.819369634782862927e-02,-5.709620607877229775e-03,-3.103574288292160980e-03,-4.519541038948294968e-04,-9.871668062303990202e-03,6.100862538060473211e-03,-1.986649479612027924e-02,1.749655794599852890e-02,-1.849943976911358132e-02,-1.116959778735023869e-02,-8.633110655535904468e-03,7.618022976836601179e-02,-6.149961240122463375e-03,-8.590040872819467918e-03,3.225997228721497190e-01,-1.160403995690869987e-03,-1.071373654202440948e-02,3.118706588650434208e-02,7.798396557538936347e-02,9.719391122831200214e-02,-3.716457658409332530e-03,-1.901917785922758314e-02,1.206813820733351013e-03,1.191667706228173411e-02,1.570765793677229155e-02,1.417021035332056370e-03,1.145658270884028322e-02,1.200865663446336025e-03,-2.334475016555583645e-03,-1.767217816996387303e-02,-7.214292115666563754e-02,-1.378177278010167799e-03,-3.189865857586408090e-04,9.272574242908680764e-02,-2.689735756475488977e-03,-4.219771864620486257e-02,3.208956944060625035e-03,-1.474806623366339137e-02,7.196806059021036706e-02,-4.310570675702930787e-02,3.187898637789160559e-04,2.442737678758695897e-03,4.219010593452961720e-03
