-1.301588996204301463e+00,1.363612043507856697e+00,2.508040598374094987e+00,2.181885618009430150e+00,3.736767491810533137e-01,-3.356183638317584261e+00,-6.205334698022947348e-01,1.353377913295844781e+00,3.636266004071678104e+00,1.154369759461931766e+00,-2.327318493135229982e+00,-5.208350039207477522e+00,1.779634196294692439e+00,-2.589210857053414472e+00,2.282767088919337439e+00,-1.864619326525251530e+00,-1.791838514765054846e+00,-4.377829076258482610e-01,3.681467759309219323e-01,1.333411024700780434e+00,1.422907481445701894e+00,-1.044081118118005191e+00,1.351118965074871836e+00,1.196606178829619838e+00,2.332669737118941100e+00,2.294283013171938723e+00,5.702542219185002814e-01,-4.071408186872384205e-02,1.348526969640576834e+00,2.152590211406163190e-01,-2.884179431109825664e-01,1.249178450796578854e+00,-9.707274896125621666e-01,1.903669624820461204e+00,4.490372179898120125e-03,7.452045111109754094e-01,4.550451700840604796e-02,-2.085818598380680733e+00,5.166362363420335058e+00,1.715211891865959570e+00,5.741359737534962315e-01,1.650703762300598676e+00,1.241203217213772136e+00,2.061754455086516113e+00,-2.363584847586219784e-01,-1.225384094379748268e+00,2.660958756032649308e+00,1.865542215968252426e+00,2.075414528900183964e+00,-4.911986696786282636e+00,2.247650309844708219e-02,-2.272215049745668569e+00,-7.850318084190650580e-01
