4.138585945955935430e-01,5.722915407427624224e-02,-4.705504333176185883e-01,8.220911911327728749e-02,-1.139342570401171220e-02,-4.638615229116048178e-01,-1.758811925198705273e-01,-3.332875959290730085e-03,-1.271191290899929216e+00,-5.666733865556503602e-01,1.692724275591408201e-01,-1.227966225789169363e-01,-1.578405485039119815e+00,-7.998411142939200469e-02,4.384362537373688862e-01,-5.825646165835155488e-01,-2.665419328020646877e-02,3.330999071079167595e-01,5.437213232937410101e-01,1.063966777178585316e-01,-2.252119182866759439e-01,6.655263034083996887e-02,-3.764190928910825518e-01,-1.799896897448203248e-01,-2.855566587878663465e-02,-3.424061117194192039e-01,3.501238775957464799e-01,5.312651642645752764e-02,4.349907320770065589e-01,-1.942070598477027912e-02,-3.335955276911520273e-02,3.698010863146024112e-03,-3.168695408870323554e-02,-5.307942673605756667e-01,-9.248866638876560020e-02,-3.423882369209771404e-02,1.153986903145049064e-01,1.754245316422972101e+00,-2.388805618456853880e-02,-1.449261391011606559e+00,2.115619393988482921e-01,1.901878047171401756e-02,-3.394336812294904693e-01,2.752830420357909105e-02,3.904366738306618012e-02,9.484707232575156910e-02,7.490167976065131850e-02,-3.561113765645834706e-01,7.708061965888252098e-01,2.951073240147197296e-01,2.185017489080560260e+00,-1.027576800879203417e-01,6.159695186706096517e-03
