3.906460805593496566e-02,7.608332582059105231e-01,1.997029797037400023e+00,-1.504680407185886581e-01,-1.366727015372609655e+00,-2.161382180023940336e+00,-2.351239764293078682e+00,2.470059108988776675e+00,7.723291180256787111e-03,-1.972686946198196400e+00,7.157231271779618265e-01,-4.924638828440426330e+00,-8.964292253952472755e-01,2.333925570801155924e+00,5.889918744088840086e-01,1.474739194485196414e+00,1.512724331674533351e+00,-2.769281219360181456e+00,2.295123928653879375e+00,-1.071557876144118154e-01,1.401577174801494019e+00,-2.217105217167117948e-01,5.945294044130755573e-01,5.343809808433824153e-04,6.623131784425192459e-01,2.818961886126822303e-01,-1.645431789546400849e-03,-1.961217449497194787e+00,8.363046792282049927e-04,7.351446408028671220e-01,1.154890530192692333e-01,-1.653218940117798352e+00,-1.219103126978698243e-01,2.731509194229684787e-02,2.884719958205344548e-01,-3.607778516482036402e+00,9.616746771687170181e-01,-1.964201445217903741e+00,-8.752384795560718134e-01,5.437367369249296312e-01,7.967707721673075172e-01,2.393619255166096860e+00,3.658802103358766988e+00,1.026160213705796555e-02,1.403422534355219520e-01,-9.535906193084285887e-01,-9.228951269231816523e-01,1.305193398531536396e-02,1.556563429675044796e+00,7.624390575570312301e-01,-1.745100618205018606e+00,-9.867049732821194796e-01,5.730252954138263799e-02
