3.293240000000000056e-01,-5.281019999999999825e+00,6.632609999999999895e-01,-4.297150000000000247e+00,-7.689420000000000144e+00,-3.642920000000000158e+00,5.366649999999999893e-02,2.292120000000000157e+00,-1.367700000000000027e-01,3.145049999999999901e+00,-1.586920000000000108e+00,2.994709999999999872e-01,1.419990000000000085e+00,7.859420000000000295e-02,3.060130000000000017e+00,-1.027600000000000069e+00,1.036489999999999911e+00,-2.582409999999999872e+00,-5.441860000000000142e+00,5.491929999999999978e+00,-2.921499999999999986e+00,-2.015339999999999909e-01,-4.079430000000000001e-01,9.545900000000000496e-01,-1.932010000000000116e-01,1.708129999999999926e+00,-4.113259999999999660e-03,1.162659999999999944e-01,-4.508060000000000400e+00,-2.374799999999999967e-01,-3.125140000000000029e+00,-3.078650000000000109e+00,-4.086979999999999613e+00,3.347129999999999939e+00,4.377809999999999757e-01,-6.253330000000000000e-02,-5.973939999999999806e-01,1.636619999999999964e+00,9.936870000000000425e-02,2.354259999999999964e-01,-6.823759999999999826e-01,-2.516410000000000036e+00,5.037460000000000271e+00,2.089080000000000048e+00,3.753899999999999793e+00,1.332699999999999996e+00,-5.197790000000000354e+00,9.399330000000000185e-01,2.951039999999999885e+00,-3.997910000000000075e+00,-3.025230000000000086e+00,3.014689999999999870e+00,-2.079940000000000122e-01
