-1.282342380948995990e-03,2.857994651039184528e-02,-4.953866869931538575e-01,-7.935528378849205922e-01,1.617218513322353779e-01,1.697233110947524715e-01,1.045850612393175894e+00,-2.364650164293404522e-01,-3.670420762791404279e-01,1.740374493834405401e-02,6.169832236006396187e-01,1.506893593853928515e-01,-3.465731207573704009e-01,3.536344408804770745e-01,-1.331915332797642230e-02,1.114810978421977052e-03,1.508757012319097805e-02,1.197449478198697070e+00,-4.062827226724590735e-01,1.437313673710506778e+00,7.678387595633175966e-01,8.218654972680487086e-03,-5.973431021332081120e-02,-2.432145769097790178e-01,-1.422022980654498725e-01,-5.058531937556884350e-02,1.217291696575371063e+00,-5.269904745771001320e-01,1.383096708596478694e-02,-5.499019703350326305e-01,-7.672724433147780354e-02,-2.725179678216562915e-02,5.474420846365775362e-02,4.899813202615275753e-01,-8.396473814318957535e-03,-8.481895280779508384e-02,8.422759894095731281e-02,-1.119293311120238554e+00,4.250975459385279431e-01,-1.565069059302450771e-01,-2.331536425961010517e-01,1.478376304374613068e-05,-2.624527320000756905e-02,-2.923762916017728572e-02,-1.462011431473924095e-01,1.156142021377236428e+00,-2.717532068650348794e-03,-1.242238958822580730e-01,-6.355514390717991423e-03,-4.652725620640931758e-01,1.660324398974413751e-01,1.934721135934161507e-02,1.118421526992508935e-01
