1.134836077690124512e+00
-5.113130901008844376e-03
-7.626782357692718506e-02
-4.343138542026281357e-03
3.466961439698934555e-03
-8.646224737167358398e-01
-8.473330736160278320e-01
-5.297750700265169144e-03
-8.902483619749546051e-03
-5.703984294086694717e-03
-8.014050722122192383e-01
-9.340231306850910187e-03
2.533202469348907471e-01
-5.247053690254688263e-03
-1.848358102142810822e-02
3.280144631862640381e-01
7.863031625747680664e-01
-6.221160292625427246e-03
8.626975417137145996e-01
1.217164158821105957e+00
-6.220821291208267212e-03
-6.467159390449523926e-01
-5.467630922794342041e-03
-9.097833633422851562e-01
2.096331566572189331e-01
1.009338498115539551e+00
-1.230591654777526855e+00
8.389722704887390137e-01
1.855535060167312622e-01
6.841700524091720581e-02
-4.606743808835744858e-03
-8.581653237342834473e-03
4.773598611354827881e-01
3.267072737216949463e-01
-3.293762505054473877e-01
-7.028122544288635254e-01
-9.100235104560852051e-01
-8.059543557465076447e-03
4.422582983970642090e-01
-2.488480955362319946e-01
-5.943246185779571533e-03
-1.142611633986234665e-02
9.819778203964233398e-01
-1.097438931465148926e+00
-6.712801288813352585e-03
-5.158447027206420898e-01
-3.012015484273433685e-03
-5.935711413621902466e-02
-1.503295917063951492e-02
-7.765794638544321060e-03
-8.528592064976692200e-03
-1.947989612817764282e-01
-4.021934699267148972e-03
