3.176608687498619354e-01,2.333119466300422329e-01,-2.342887968671624466e-01,-8.797703457313264808e-02,2.160574761222823492e-01,3.403598244146571750e-01,1.765751468437815885e-01,-1.351743643143675788e-01,-1.797981029017294008e-01,3.118938268813549741e-01,2.237626170616959231e-01,-2.844300645033957520e-01,-1.254250619691774926e-01,-1.586551478971476026e-01,2.340281860811242454e-01,1.535744480889585095e-01,1.883153238296554344e-01,-7.948386820438829714e-02,1.235716558699126028e-01,2.334126283793913348e-01,2.479346629283721015e-01,1.583385230825939960e-01,-1.399239215653012569e-01,3.446210178801415447e-01,-2.110219832337069668e-01,3.527844856842559662e-01,-1.306439961669811911e-01,-1.717667018317524386e-01,-3.986753832273536302e-01,2.048089297120640195e-01,-3.028808109764153378e-01,2.318592855061354097e-01,2.436618665438332609e-01,-3.196950798590621479e-01,2.275247466466550905e-01,2.389358094815039468e-01,-7.381508423409796973e-03,2.529171176164585755e-01,2.252945761529381585e-01,3.863082784886500698e-01,1.782156340587055243e-01,2.356727723956548448e-01,-1.948492061573993961e-01,1.832107598076722355e-01,2.561542250450019598e-01,1.004815652180176405e-01,2.480024284424925396e-01,2.360370205046771752e-01,-1.191987230244772322e-01,-3.079574308420101603e-01,4.346696918933978110e-02,-7.089720560775503166e-02,-6.073140603232399931e-02
