1.227795204953902708e+00,4.345144494216590658e-01,9.622723295115179765e-01,-3.663534814271041107e+00,3.433105967620245558e+00,7.178948588517600760e-01,2.106760398093479925e+00,1.970931161797128794e+00,4.351923640470777843e-01,-3.026792373036599759e-01,1.349212584653517455e-01,2.340323046114964056e-01,-9.354586144679447601e-01,-1.672105128775747351e+00,2.162249962597155406e+00,-9.206694893494673515e-01,-2.847566746271320337e+00,1.082682885141292017e-01,1.871533675214505088e+00,9.846505920958900093e-01,1.185933530864205165e+00,-1.178564191062789535e+00,2.892793512160790614e-01,-6.066473220788518361e+00,1.391395216297502291e+00,-1.136339806899107518e+00,1.549516545726401517e-01,9.402994118621013087e-01,1.816108463331971845e-01,-2.049292142571454534e+00,1.436730215914570064e+00,1.718658891266021671e-01,-1.352434586598811883e+00,1.035131458509513491e+00,1.019339142072369420e+00,1.215557567089802227e+00,2.191248865617523744e+00,4.618480507730487794e+00,-7.413111220837060866e-01,-5.423290709741396931e+00,3.106412863128719337e+00,-2.134437175069675008e-01,2.891997977340395209e+00,9.339041411417738914e-01,7.946155034493995739e-01,1.682639457799022908e+00,1.540000847715713439e+00,-4.114438864427420128e+00,2.613060638925607249e-01,-4.811955541673280656e+00,3.934018374820402175e-01,-1.852294250593222058e+00,3.127356469275738515e+00
