4.770808992376219249e-01,3.113086054906804775e-02,1.781734602925829358e-01,2.874561470083670245e-01,-1.618382350338843645e-01,-1.363576147890133150e-01,-5.078335877829726758e-02,-6.335290458950041392e-01,-1.399650919389187287e+00,-6.010223300800975332e-01,6.743787938595831311e-02,-6.779551422863756560e-01,-1.118563840781603425e+00,-3.944228772666480975e-01,-3.590807596221666231e-01,3.092345380048822645e-01,4.193155315872901800e-01,-1.505042653975184053e-01,7.642116564324344941e-01,-5.603451009161428686e-01,5.690784724034377851e-01,7.521761567730835818e-01,6.833604316221704271e-03,-6.194482693917416904e-01,-2.265797026234034617e-01,-1.810482846328467232e-01,-1.834859604259628241e-02,-3.745837446233808987e-01,-4.581911936030187704e-02,3.792473232055314503e-01,-1.021554709473869449e-01,4.784613254482661393e-01,-5.112812773033478253e-01,1.116460878625021441e-01,1.431684898753044222e-01,-1.474120231618067378e-01,1.318576381457919222e+00,7.890549657662752070e-01,1.274323138825682156e+00,-1.020105826395187182e-01,-8.842071144354081424e-02,-2.943684378289038671e-04,4.513251015928877730e-02,1.297131629147832088e+00,-4.386535400889287062e-01,6.435277445374662161e-03,9.326768007068984845e-02,3.200423531252001852e-01,-1.056046525557523985e+00,1.307864936077620180e-02,3.303455069533756117e-01,-6.149708637364075248e-01,-7.901784698741236290e-02
