-1.001553164248542682e+00,-6.758819610808346201e-02,-3.067837747513805779e-01,-1.734419448138044273e-01,-1.098265703154498008e+00,-7.352093268057895425e-01,-2.007291789612238586e-01,-2.117456791488948192e-02,-6.004577692175396691e-02,5.684722115742938398e-01,-6.273340385861653906e-03,9.020272948097639298e-02,3.236520304903300893e-01,8.192196401798477190e-01,1.165532238606176163e-02,-1.058580850220477015e-01,-4.135727336125661902e-01,1.733859451742826296e-01,2.168954455528847303e-02,2.356462091332262379e-02,7.389531038580013922e-01,4.233505237957434220e-02,-1.117793420579256347e+00,-2.105631459652232765e-02,1.331453148596904168e-01,-8.073810477910374761e-01,4.270781726124406319e-01,-4.733104234198822757e-01,-9.861626870368545017e-02,-1.655898170579769013e-01,1.582844818672141454e-02,7.367001588707454696e-01,8.047812101450142964e-06,-5.115540404551643244e-02,7.539461662365131156e-01,8.413952465181994134e-01,-3.005538962749204450e-03,-6.450872017756734134e-02,1.228169029283773472e+00,-9.907670204658258761e-02,9.696139486139018215e-01,-9.230047061241855588e-02,1.141084547291287388e+00,-6.090568492492777208e-01,1.906408531475949769e-02,1.872519388332237467e-01,-9.112676107345024645e-01,4.481343469765104726e-02,-2.322634613728923741e-02,-6.970079435441217663e-02,5.574345195949377274e-01,6.574753539801782010e-01,-1.038863888358456250e-01
