-1.364969460734261411e-02,-7.954033499161154708e-02,4.126287805942600584e-01,-3.494567337931205331e-01,7.690174634922967642e-03,-1.492408003449469334e+00,2.354858213208920609e-02,7.679379353034432309e-02,-5.006116226223477073e-01,-1.986454807617006324e-01,-8.112024936369958972e-02,-3.139501267767830922e-02,7.423817527566195507e-01,-4.255748645873042024e-01,3.472266761152514869e-02,3.153614000876675365e-03,1.145244088943338845e+00,3.456898255320233621e-02,8.137178106421869917e-04,-2.506475251633076828e-01,-3.507038324081487857e-01,1.303087461699267591e+00,-4.485477039738086646e-01,-6.847312020504380675e-04,-5.204482553090614833e-02,7.170876367647950785e-03,4.823744389309873593e-01,-2.988997958498115781e-01,1.586540917763831771e-01,3.985859818019144712e-02,2.260228928280673399e-02,-3.542469445903796421e-01,-2.392309584398986944e-02,-8.226851385226910396e-02,2.164132807757951082e-01,-3.184623297157267996e-01,1.373754349622334850e-02,-3.893675126463626984e-04,-4.360254913891500189e-02,-8.350089937883874158e-02,1.538569462598576187e+00,2.218966376142829725e-02,4.660580158175607335e-01,9.857622364030219075e-02,2.016970735072822277e-02,7.823626548323238394e-02,-3.842455040402514843e-01,2.992816240153230861e-02,2.197882210905779780e-03,-1.043816715019875441e-01,8.900878084401565582e-01,-2.053505386835564536e-02,8.067911162951937887e-02
