3.476927158822205877e-02,1.312150926768397285e+00,9.819114959093760975e-01,5.420061578692860760e-01,2.381707564990685366e+00,3.899553220228586525e+00,-6.637014980409845777e-02,-5.247473548567438417e-01,-2.934116740041808336e-01,1.250763725031559082e+00,4.683924486211533456e+00,-2.193117061267856049e-01,4.498051021166695196e-01,-8.514939723616967715e-01,-3.466101286649923008e-01,6.302936887869933225e-01,3.106601198564129085e+00,1.995248849091961763e+00,-5.437958785938150186e+00,7.079186669048277702e-02,-5.212409633932071351e+00,4.201430868699750076e-02,-3.927032842111022770e+00,-1.982304786857014944e+00,-2.205181532862393823e+00,4.821292454313982345e-01,1.438350167531819768e+00,-1.946260033260133193e-01,5.280390833548699314e-01,3.016196536891795343e-01,9.546961014420836111e-01,3.610559945187260533e-01,3.013794511509566121e+00,-4.725017825629503343e-01,-1.940628328187905538e+00,1.732622586995875125e+00,3.278792023423836022e-01,-9.019417821769716570e-02,-3.588223770981016081e+00,-5.011972289414952098e-01,-3.036614987793842868e+00,1.813585216896259844e+00,1.046899050128365483e+00,1.951715707266901689e-02,4.205333660596625722e-01,-5.885072245361100407e+00,-7.266816499761916681e-01,2.524463102922452906e-01,1.701962983264701634e+00,-6.004600496083889460e+00,-1.868249095749152655e-01,1.437833640032904592e+00,-2.529108242063845324e+00
