3.021836091233457422e-01,1.547659397395890202e-01,3.460352395528228930e-01,4.056215460319505528e-01,1.281363157467114156e-01,4.583345733130184674e-01,2.287024066173385869e-02,-2.489788208926082824e-01,1.610556335681092022e-01,4.368451257802264398e-01,-2.672092010292901332e-01,-2.679379869574635142e-01,4.797918635757665307e-01,-3.962522849567219341e-01,-6.834984374461790246e-02,-1.948354222281139039e-02,4.697140725078258194e-01,-4.065065031303918830e-01,3.366114984806492516e-01,3.330567997928799429e-01,-2.771204855313937343e-01,-1.362030229940646986e-01,2.326270214491462096e-01,-2.773031002641551668e-01,3.835903627384107950e-01,-3.958135758354392464e-01,-1.041925641378645545e-01,2.911146436602928267e-01,-2.702663219673375750e-01,8.792112342777904949e-04,-2.163990093510289592e-01,-3.034997967385513196e-01,-3.156262175396070679e-01,-3.059496676671976667e-01,3.717244886320990593e-01,4.148721208650421599e-01,-2.103994046744880608e-01,-2.407907274072283166e-01,-3.351181236204027192e-01,3.160596708733534599e-01,2.594728524692703764e-01,4.303694979275055621e-01,-2.395527512581937524e-01,-1.216759356167203820e-01,3.290103607675882724e-01,1.933343308298746677e-01,5.697098050958255833e-01,-1.866888947536641807e-01,2.368976875945319749e-01,2.938364002229920668e-01,1.721628883182942937e-01,3.209512552975673505e-01,1.871415346663047874e-01
