1.737040400974231957e+00,-8.568448974743221591e-02,6.812191912473863908e-01,-1.897541953335230680e+00,6.223096424076021149e-01,2.139638890508204216e+00,8.177979935496052302e-03,-7.720190591769375554e-02,-2.785301655315732372e+00,2.238959859831351373e+00,-1.082120077034785188e+00,-2.010736740877934636e+00,7.873398918504493915e-01,8.470485924399959177e-02,3.664166696928355726e+00,-1.841015637851769471e+00,1.971317742200834999e+00,-3.424500324569322185e+00,-7.246208645592417952e-01,-1.561271694099405583e+00,-3.316464706674423724e+00,-2.391565962318695338e+00,-1.330738161157473787e+00,2.224330635389332400e+00,1.106763930967176845e+00,2.136237673756832822e-01,-1.483460958899238680e+00,5.805369027198028359e-02,-2.053920483092159521e-01,-1.416723622088138956e+00,1.087117410040017607e+00,1.187273366463752033e+00,-2.155627641140636375e-01,2.004082252828441657e+00,3.545944081659245795e-01,1.380813783913509285e-01,-4.060995237526234675e-02,1.680530923761727857e+00,8.846394406782974729e-01,-1.855253694360844641e+00,1.625804453709732478e+00,1.612745595919130803e+00,-1.661639871160390247e-01,1.649921958651979326e+00,-4.644689254263204559e-01,-1.364179761902246435e+00,7.907657154763343410e-01,-2.566072310857284045e+00,-4.887522512398868813e+00,2.131979159641532284e+00,2.347335728826553669e-02,2.266623681682879532e+00,1.696164054177233815e+00
