-2.770470158325278806e-02,2.601391139815758638e-05,4.809867396140397877e-02,5.511462278283255078e-02,-2.519238431155301772e-01,-1.117305794912682032e-01,-1.599908467075985066e-02,1.542669787088329636e-01,1.735430813168784836e-01,-6.457578643905030266e-03,-1.150814098012075265e-01,3.330211574437635068e-03,1.332370587911221038e-01,-5.915054788694830146e-01,-2.746177194447409209e-02,-1.802867023227203436e-01,-3.586292539462264395e-03,8.491049858260467376e-02,3.115347594125753364e-02,8.000179805163420976e-02,-5.648094069967370956e-01,-1.718860637371457112e-01,1.475696989432643928e-02,-6.772228977431805907e-02,-4.582025712902058900e-02,1.257914439174327714e-03,1.103992724961908173e-01,6.235939528293521494e-02,5.988998800156431282e-03,3.049634819945316183e-02,-1.388974963070481504e-03,2.483698096012905143e-01,-3.543463008086473326e-02,7.994679009783699219e-02,8.033249540265462174e-02,-1.318067542849106488e-02,1.204517431464557876e-03,-1.185770115728363577e-01,1.050987197892477333e-02,2.913642040496762509e-02,-1.628122710843209580e-05,7.504117068639340124e-04,1.164632878649798781e-01,-4.282404322764311877e-03,-1.944840366320013392e-01,5.198173489216062482e-02,1.649226921305259677e-02,-8.692220077233618614e-02,6.750693842440319212e-04,2.931550974704395102e-02,-2.104141704696708623e-02,1.572626703570432702e-02,9.340502925581435634e-02
