-3.661123485791177579e-02,9.258444303121041163e-02,-7.540862601358435877e-03,-7.959230316623919221e-02,-7.223088728937047953e-02,1.540006305017437849e-01,2.872080316969267133e-01,3.470463762713578426e-02,-2.083232990430576494e-03,-1.034852342935387165e-01,3.475275048248081811e-02,-1.034913781511106676e-02,-1.262522344339346014e-01,7.512577346274837420e-02,2.241157111256606924e-02,-2.103758535687642317e-01,1.318239967747283081e-01,2.451935376564575164e-01,6.371134286019250470e-03,1.373100906500828722e-01,-3.002843147575849289e-02,-3.208683127118059503e-03,-6.831360081187753952e-02,7.123010423424279425e-02,-1.301599167986413619e-01,-7.654274578341409285e-02,-2.285963305214394614e-01,5.574281755966695867e-02,5.383184653080857682e-04,3.203438778866497805e-02,-5.201818204159767284e-02,-4.896134289483794477e-03,2.394084059516135218e-02,3.007143556838111076e-01,4.569373606386574471e-02,-8.020924516151117789e-02,6.633880015315588193e-03,3.691622978993302495e-01,-3.224657301168769308e-02,7.157061675976429671e-02,5.640122082986742495e-03,3.628648773491273145e-03,-1.051169327390597680e-02,1.828379820317798943e-01,-7.459442615221359256e-03,1.225935051019111932e-01,-1.744725225227957950e-03,-6.066265122455800907e-02,-1.724107397505318107e-01,-3.950402373299639891e-02,-2.242688585461297937e-04,-4.370501900402676970e-02,-1.916700579664497583e-01
