1.112693862734933925e-01,1.061149073526933967e-01,-4.927347629659831196e-02,-8.769191350605302568e-03,1.761410563435785370e-03,-1.351968929707780993e-02,7.362116428357535569e-04,5.454808622405035723e-02,-1.974828332441279366e-01,-4.954902470942413872e-01,5.528146271474649459e-02,-2.552260401704967846e-02,3.577151996933543299e-02,-4.110184428110524174e-02,4.938360990014900587e-02,-1.459622491835209646e-01,-2.056421220273459693e-01,9.097004781886884606e-02,1.395990015290654862e-01,1.914277048692126018e-02,-3.962803145084488055e-01,2.333772578235423362e-02,1.946126207700553945e-01,-1.294365476086342670e-01,3.076392098240572984e-02,1.364163145106997155e-01,-1.542579311077758863e-01,-5.406424760124282913e-02,-7.373954476994144802e-02,-4.204266814384562297e-03,3.681791131330124089e-02,-4.684809778071842915e-03,4.252714874374174947e-03,7.133929765600724449e-02,7.332606909873527756e-02,-1.951820386050856504e-01,-1.521017593532866287e-02,-3.319349868702714534e-01,6.244275811097302689e-03,3.319322938183093957e-02,-1.716772355117754112e-01,-1.928609521627989293e-02,3.185664329746233925e-01,1.709155816163872854e-01,6.959508071790846372e-03,1.624338910914988748e-02,2.890382421898289866e-01,5.563174525279974691e-01,2.109625145999351747e-01,2.506958521987971179e-03,1.916300843764075779e-01,8.541502394345978910e-02,2.540406118217391485e-01
